{"type":"NeuralNetwork","sizes":[4,64,32,1],"layers":[{"weights":[],"biases":[]},{"weights":[[-0.18664851784706116,-0.041734322905540466,0.15755145251750946,-0.028989795595407486],[4.71635103225708,0.5692148804664612,-0.04115835204720497,0.3676086366176605],[0.06893464922904968,-0.023116998374462128,-0.05212419480085373,0.010616732761263847],[0.12307112663984299,-0.14777325093746185,0.111791230738163,-0.10072678327560425],[-0.1257445365190506,0.19644968211650848,-0.1177280843257904,0.059284668415784836],[-0.17966602742671967,-0.06160140782594681,-0.04593843221664429,-0.11353401839733124],[0.13874471187591553,0.048732370138168335,-0.04044000804424286,-0.06978078931570053],[0.13430634140968323,-0.12335631996393204,-0.015123456716537476,0.005415664054453373],[0.08636597543954849,0.0431869700551033,0.013436156325042248,0.1844691038131714],[-0.12136039137840271,-0.10310818254947662,0.0011984837474301457,-0.13379807770252228],[-0.12314345687627792,0.0010741332080215216,0.1928061842918396,-0.0705740675330162],[0.10858474671840668,-0.014881154522299767,0.11566388607025146,0.11954277753829956],[0.18523940443992615,0.002833278849720955,-0.18466642498970032,-0.17688848078250885],[-0.12097287178039551,0.02466711401939392,-0.01997869834303856,-0.07074245810508728],[0.13457758724689484,-0.11896942555904388,-0.19531819224357605,-0.19216880202293396],[-0.060579363256692886,-0.07303541898727417,0.16375909745693207,0.19488723576068878],[0.1695459485054016,-0.16724157333374023,0.08237405121326447,-0.1735757738351822],[-0.09116454422473907,-0.1858036369085312,-0.027079522609710693,-0.1533757895231247],[1.2243632078170776,0.151672825217247,-0.08948589116334915,0.1784842312335968],[-0.18292725086212158,-0.0891750231385231,0.11222245544195175,0.11299341171979904],[-0.17935077846050262,0.11392726004123688,0.05021822825074196,0.023737624287605286],[0.06813384592533112,0.028444044291973114,-0.11744818836450577,0.08230333775281906],[2.630009174346924,0.3263363242149353,0.1217096745967865,0.3443971276283264],[-0.17155927419662476,-0.12694650888442993,-0.0435173325240612,0.1472548544406891],[-1.6290727853775024,-0.18645507097244263,0.05108019337058067,-0.2480357587337494],[0.07648692280054092,0.1028847023844719,0.1709258109331131,0.02389834262430668],[-0.17781531810760498,0.12881971895694733,0.15154609084129333,0.1698567420244217],[-0.1603328287601471,-0.07121694833040237,-0.05601825565099716,0.1814524382352829],[0.15527789294719696,0.16286492347717285,-0.147444948554039,0.0792434886097908],[-0.10371866077184677,0.11881767213344574,-0.010334055870771408,0.012113731354475021],[-0.160236194729805,-0.05237913876771927,-0.16426242887973785,-0.04869725927710533],[0.056861162185668945,-0.06908565759658813,-0.17041973769664764,0.07549216598272324],[-0.10121913999319077,-0.19978739321231842,0.10432200878858566,-0.18817006051540375],[0.09267621487379074,-0.14202307164669037,-0.12595652043819427,0.029522085562348366],[-0.12390093505382538,0.16941626369953156,-0.13304820656776428,-0.024478470906615257],[0.1312941610813141,-0.16042722761631012,0.17933791875839233,-0.13223667442798615],[0.12310533970594406,-0.10565601289272308,-0.07611238956451416,0.11198575794696808],[0.1873289793729782,-0.08369771391153336,0.08836203813552856,-0.19505321979522705],[-0.13534191250801086,-0.15279431641101837,-0.1985796093940735,-0.06624225527048111],[-0.16180004179477692,-0.06815116107463837,-0.05587271973490715,-0.08751832693815231],[-1.9401384592056274,-0.08399049937725067,-0.16670432686805725,-0.23741237819194794],[0.19331932067871094,0.036107223480939865,0.03407244384288788,0.0944998636841774],[-0.10478236526250839,-0.020441830158233643,-0.15294310450553894,0.15328529477119446],[0.10400128364562988,0.19348973035812378,-0.1755727231502533,0.16736896336078644],[-0.11688710004091263,-0.1447763442993164,0.11472924798727036,-0.11591684073209763],[0.17973580956459045,0.03273236006498337,0.19134056568145752,0.009480233304202557],[-0.07707017660140991,-0.019398890435695648,-0.19484961032867432,0.14923761785030365],[0.07079271972179413,0.14806638658046722,0.05868178606033325,-0.024824943393468857],[-0.16551701724529266,-0.08234240114688873,0.02315773256123066,0.1528455913066864],[0.16992059350013733,0.10582353919744492,-0.15027527511119843,-0.14568914473056793],[-0.11942996084690094,0.1401706039905548,0.04592959210276604,0.03644425794482231],[0.1351577341556549,0.15126487612724304,-0.015032182447612286,0.14929479360580444],[-0.10471822321414948,-0.1210109144449234,0.04279499873518944,-0.1014554426074028],[-0.1258983612060547,0.19507360458374023,0.17236880958080292,0.0053664869628846645],[0.44603484869003296,-0.11604712158441544,0.2025373876094818,0.08867017924785614],[0.14141225814819336,0.03181780129671097,-0.059768445789813995,-0.1600349247455597],[-0.10138636082410812,-0.0030711544677615166,-0.0170765183866024,-0.09500399231910706],[-0.09160274267196655,0.08951509743928909,-0.13435104489326477,-0.04205843433737755],[0.17390698194503784,0.18876488506793976,-0.08936804533004761,-0.13786007463932037],[-0.14771515130996704,0.03275325894355774,-0.028860565274953842,0.11874350160360336],[0.12443234771490097,0.07675042003393173,-0.11643543839454651,0.0837816596031189],[0.1046883687376976,0.020690755918622017,-0.15204013884067535,-0.1473589837551117],[0.07551560550928116,-0.12118703126907349,-0.10007008165121078,-0.09531503915786743],[-0.24732227623462677,-0.16278162598609924,-0.1133873239159584,0.07676968723535538]],"biases":[0.012661337852478027,0.11634393036365509,0.11836565285921097,-0.1400728076696396,-0.18169859051704407,0.19349078834056854,-0.03478764742612839,0.027943449094891548,0.16611018776893616,-0.06743103265762329,-0.100209541618824,0.0015100514283403754,-0.19563323259353638,0.08170689642429352,0.1846449226140976,-0.14335200190544128,-0.08761056512594223,0.04120517149567604,0.18895241618156433,0.11490605771541595,0.06998056173324585,0.052072979509830475,-0.11320697516202927,0.10715820640325546,-0.13642607629299164,-0.023176224902272224,0.1515503078699112,0.051564935594797134,0.024027148261666298,-0.08014241605997086,0.08359967917203903,0.19739100337028503,-0.09731730818748474,-0.13947497308254242,0.1353258639574051,-0.16372311115264893,-0.002179480856284499,-0.12275178730487823,0.1552371233701706,-0.017156997695565224,-0.1552872657775879,-0.16123069822788239,-0.10409601777791977,0.05419335886836052,-0.020299328491091728,0.0837724432349205,0.079554483294487,-0.009263219311833382,0.035591673105955124,-0.006098154000937939,0.14382468163967133,0.14253486692905426,0.036827195435762405,0.03701425716280937,-0.002870835131034255,0.16443604230880737,0.06055879592895508,-0.05639955401420593,0.14310117065906525,0.09815733879804611,-0.10593385994434357,0.12500150501728058,-0.10545746237039566,0.048386167734861374]},{"weights":[[-0.03861309960484505,0.20183105766773224,0.21073567867279053,0.3200373649597168,0.11966768652200699,0.02077801711857319,0.1708313673734665,0.24205072224140167,0.16275624930858612,0.07597705721855164,0.07568876445293427,0.25347426533699036,0.29709774255752563,0.10100974142551422,0.13460247218608856,0.12037532776594162,0.27061349153518677,-0.027253732085227966,0.2079625129699707,-0.07295623421669006,-0.00393527839332819,0.2547990381717682,0.20338664948940277,0.007548380643129349,0.10071337223052979,0.1251709759235382,0.09901755303144455,0.10606210678815842,0.08024532347917557,0.044969044625759125,0.0012772713089361787,0.2148594856262207,-0.07426996529102325,0.3439621031284332,0.31963011622428894,0.11014710366725922,0.18433311581611633,0.3599033057689667,-0.19054287672042847,0.0884997621178627,0.026992686092853546,0.15101158618927002,0.19842186570167542,0.13704557716846466,-0.17477889358997345,0.1921447515487671,-0.07231854647397995,0.19626082479953766,0.17866885662078857,0.35845813155174255,0.0992484763264656,0.0200688224285841,-0.09791995584964752,-0.15893231332302094,-0.10132624953985214,0.0016831887187436223,0.37530943751335144,0.11965850740671158,0.2541140913963318,-0.04098581150174141,0.19626182317733765,0.04963323846459389,0.2608915865421295,0.020822642371058464],[-0.0757066085934639,0.12397026270627975,0.11792299151420593,0.43359076976776123,-0.01953958347439766,-0.1071140468120575,0.42746880650520325,0.3538784682750702,0.39352941513061523,0.09388039261102676,-0.1617613583803177,0.12094736099243164,0.3581101894378662,-0.029032349586486816,0.07466170191764832,0.17951728403568268,0.11492407321929932,-0.14051225781440735,0.2706453204154968,0.0802261084318161,0.1743241250514984,0.07522723078727722,0.16315323114395142,0.05377289652824402,-0.12115906178951263,0.2683577835559845,0.11881560832262039,-0.14403828978538513,0.2366020381450653,0.09663885086774826,0.18017499148845673,0.18752406537532806,0.17715635895729065,0.27232053875923157,0.1537114530801773,0.06837157160043716,0.34664514660835266,0.3394024670124054,0.13745540380477905,-0.10953633487224579,0.362035870552063,0.3768739104270935,-0.021161044016480446,0.25755593180656433,-0.054239820688962936,0.301307737827301,0.1490125209093094,0.4091426134109497,0.16326981782913208,0.25126850605010986,-0.0629793256521225,0.3624279499053955,0.032885532826185226,-0.10683231800794601,-0.008634484373033047,0.2030867487192154,0.06484333425760269,-0.18249574303627014,0.22991147637367249,0.06912098079919815,0.32282018661499023,-0.1567649096250534,0.2535416781902313,0.011922735720872879],[-0.08940445631742477,0.23385772109031677,0.42252781987190247,0.3816952705383301,-0.028703944757580757,-0.19686833024024963,0.3309122920036316,0.1438945233821869,0.24504238367080688,-0.1340055614709854,-0.007152011152356863,0.2749812602996826,0.38476601243019104,0.00753162894397974,0.3596155345439911,0.05729582533240318,0.3456442952156067,-0.1536947637796402,0.11098871380090714,-0.012008859775960445,0.10802557319402695,0.4934324622154236,0.06456383317708969,0.10317013412714005,0.10623093694448471,0.17677856981754303,-0.16766773164272308,0.06119711324572563,0.21101318299770355,-0.06254024058580399,-0.11447765678167343,0.12532126903533936,-0.15052911639213562,0.14480912685394287,0.4802146852016449,0.48416170477867126,0.37170955538749695,0.11881345510482788,0.005323421210050583,-0.16809093952178955,0.1286058872938156,0.14069399237632751,-0.06038980558514595,0.4327331781387329,-0.14632898569107056,0.1779194176197052,-0.07922516763210297,0.349763959646225,-0.1264917552471161,0.35283973813056946,0.14692477881908417,0.3894655108451843,-0.08853419870138168,0.18744224309921265,0.07845623046159744,0.3310624361038208,0.37508368492126465,0.02682669460773468,0.2587054669857025,-0.044065237045288086,0.3077171742916107,-0.0027437310200184584,0.307830810546875,-0.1580047458410263],[0.0931553915143013,-0.08245395869016647,-0.3375486135482788,-0.0024718455970287323,-0.055964596569538116,-0.13558761775493622,-0.31154629588127136,-0.20189225673675537,-0.2917857766151428,-0.11425670981407166,0.048479340970516205,-0.21529848873615265,-0.28769174218177795,-0.19874510169029236,-0.17525844275951385,0.016904033720493317,-0.3547898232936859,-0.17311502993106842,-0.1259959489107132,-0.1525844931602478,-0.09748025983572006,-0.14278684556484222,-0.1729985624551773,0.14556866884231567,-0.23600658774375916,-0.18916349112987518,0.03549132123589516,-0.07758114486932755,-0.28274017572402954,0.02579529397189617,0.033786591142416,-0.3901694118976593,0.05575433373451233,-0.31658604741096497,-0.29794740676879883,-0.28527897596359253,-0.22349125146865845,-0.27276623249053955,-0.17295052111148834,0.01226266659796238,-0.29609060287475586,-0.04335857555270195,-0.009046483784914017,-0.04255122318863869,-0.15772290527820587,-0.1410975605249405,-0.011067449115216732,-0.1607438027858734,-0.1279544085264206,-0.287822961807251,-0.1886560320854187,-0.3720565736293793,0.04374246299266815,-0.0851764976978302,-0.03617243468761444,-0.12870383262634277,-0.15913620591163635,-0.03086956776678562,-0.0804888904094696,-0.12266844511032104,-0.2502528429031372,-0.08179738372564316,-0.06424880027770996,0.09714341163635254],[-0.10985726118087769,-0.19885790348052979,-0.136652871966362,-0.11580377072095871,0.1389147788286209,-0.09416890889406204,0.056893978267908096,-0.0032353175338357687,-0.16066400706768036,0.0033338323701173067,-0.10585442930459976,-0.23810707032680511,0.12791293859481812,0.09963379055261612,-0.1864379197359085,0.05886956304311752,-0.14406916499137878,-0.04015674814581871,0.06729156523942947,0.17657619714736938,0.02199176512658596,0.0521966852247715,-0.10471630841493607,-0.0681658461689949,-0.16696128249168396,-0.14528261125087738,0.127557635307312,0.18422071635723114,-0.10371128469705582,0.14556020498275757,-0.04152112454175949,0.0266597680747509,0.0648195743560791,-0.11821302026510239,-0.08086587488651276,-0.10004937648773193,-0.14517268538475037,0.08651798963546753,-0.12346293032169342,-0.018252870067954063,0.048842769116163254,-0.19884663820266724,0.1261315792798996,-0.06552300602197647,0.07447643578052521,-0.06887934356927872,-0.05949823930859566,0.00906384363770485,0.19570107758045197,-0.22110222280025482,0.07645107805728912,0.028397424146533012,0.07331040501594543,-0.1944497972726822,-0.1335042119026184,-0.1855129897594452,-0.1287071406841278,-0.18472835421562195,-0.18416756391525269,0.08249899744987488,0.06060425937175751,-0.03230980783700943,-0.043710727244615555,0.09066679328680038],[-0.18088644742965698,-0.1948125958442688,-0.03174310177564621,-0.06611786782741547,0.07645492255687714,0.1059601828455925,-0.17883628606796265,-0.05361051857471466,-0.09060972929000854,-0.18308721482753754,0.1876252144575119,0.054453253746032715,0.06199386343359947,-0.0943237915635109,0.03902434557676315,0.10258989781141281,0.15693747997283936,0.09570151567459106,0.1549210548400879,-0.08747667819261551,-0.04574204608798027,0.14696469902992249,-0.12258006632328033,0.12294111400842667,0.015428203158080578,-0.030581098049879074,-0.13499265909194946,0.06288787722587585,0.17104625701904297,0.011601658537983894,-0.19987566769123077,0.05795392766594887,0.11779259145259857,0.16382542252540588,-0.11208385974168777,0.14182321727275848,-0.12632864713668823,-0.08078264445066452,0.11565501987934113,0.1603185385465622,0.035808265209198,-0.14639046788215637,0.011281851679086685,-0.11508210003376007,0.12509392201900482,0.16303198039531708,-0.01775539107620716,-0.08142851293087006,0.054874107241630554,0.11213034391403198,0.15037205815315247,0.012049966491758823,0.07348696887493134,-0.05537228286266327,0.10274861752986908,-0.20797406136989594,-0.10559291392564774,-0.07968749105930328,-0.03535633161664009,0.06538257747888565,-0.1735125631093979,-0.16286534070968628,-0.1901736706495285,-0.049962691962718964],[-0.03904704749584198,-0.1367565393447876,-0.4022201597690582,-0.4424828588962555,0.17518669366836548,0.14368367195129395,-0.1232481598854065,-0.1779310554265976,-0.16259653866291046,0.0837310254573822,-0.07156600058078766,-0.31066539883613586,-0.07191509008407593,-0.04323257878422737,-0.45892533659935,0.06497400999069214,-0.44054028391838074,-0.023846713826060295,-0.05780637264251709,-0.146611750125885,-0.04935433715581894,-0.11321304738521576,-0.21755678951740265,-0.1861475557088852,0.13196514546871185,-0.28876736760139465,-0.0851743221282959,0.040421150624752045,-0.07564547657966614,0.03592503070831299,-0.11007551103830338,-0.3886631429195404,-0.02324894815683365,-0.24875400960445404,-0.2969929575920105,-0.3951440453529358,-0.2420225590467453,-0.38907918334007263,0.016304168850183487,-0.18996316194534302,-0.18629032373428345,-0.26880156993865967,0.15977121889591217,-0.4282880425453186,0.003908107057213783,-0.15549439191818237,-0.12497875839471817,-0.38813501596450806,0.06807609647512436,-0.10099458694458008,0.1506940722465515,-0.3743204176425934,-0.041163574904203415,-0.07113856077194214,-0.1351173371076584,-0.3716450333595276,-0.40007278323173523,-0.10103634744882584,-0.3413453698158264,0.14948980510234833,-0.42432090640068054,-0.16940182447433472,-0.15763802826404572,0.0474294051527977],[-0.02466544695198536,0.0723731741309166,0.07867754995822906,0.08311022818088531,0.13651879131793976,-0.10216595977544785,0.031002089381217957,0.24735517799854279,0.19641099870204926,-0.13428662717342377,0.05507107451558113,0.277902752161026,0.24496495723724365,-0.00020602413860615343,0.23482108116149902,-0.10550148040056229,0.2444252073764801,-0.1624303013086319,-0.014268574304878712,-0.021691501140594482,-0.16518279910087585,0.04051028564572334,0.09012744575738907,-0.12625060975551605,-0.026299308985471725,0.14889760315418243,0.07774510979652405,0.09729805588722229,0.06203373894095421,-0.14046664535999298,-0.021511072292923927,0.11865365505218506,0.07886822521686554,0.22125864028930664,0.17484211921691895,0.12463261932134628,-0.03434702754020691,0.0827258974313736,-0.023284316062927246,0.09251803159713745,0.021820124238729477,0.07167352735996246,0.07007090002298355,-0.06972166150808334,-0.16043834388256073,0.2211969643831253,-0.16918182373046875,0.2528976798057556,0.1666327714920044,0.14226537942886353,-0.015987901017069817,-0.06942921876907349,0.15876956284046173,0.15472114086151123,0.057308800518512726,-0.03510615602135658,-0.01267682109028101,-0.1740519255399704,-0.022061912342905998,-0.0138617642223835,0.27190518379211426,-0.059501394629478455,0.27764368057250977,0.14730486273765564],[-0.011378227733075619,-0.07491236180067062,0.15574011206626892,-0.21625009179115295,-0.02559720166027546,0.08169025182723999,-0.09769687056541443,0.12183710932731628,0.0842399075627327,-0.16033607721328735,0.07807858288288116,-0.13413919508457184,0.10752774029970169,0.1359882354736328,-0.14526009559631348,0.08500918745994568,-0.10428861528635025,0.13013216853141785,-0.19291973114013672,0.08911735564470291,0.08898025006055832,-0.09816054999828339,-0.007969843223690987,0.03550850227475166,0.10936340689659119,-0.15840545296669006,-0.08350889384746552,-0.11251270771026611,-0.1936490684747696,0.09072096645832062,-0.11803428828716278,-0.05503702163696289,0.16382335126399994,-0.15044109523296356,-0.09089856594800949,-0.1653740555047989,-0.2164517194032669,0.1352267563343048,0.04625379666686058,0.11106551438570023,-0.21044272184371948,0.14055347442626953,-0.18786229193210602,0.04008900001645088,-0.043138448148965836,0.017119277268648148,0.062140293419361115,-0.08354794234037399,0.1986013948917389,0.1199888363480568,0.06012991815805435,-0.17449437081813812,-0.17530132830142975,-0.016377637162804604,-0.14209109544754028,-0.0014849880244582891,-0.09677508473396301,0.16642515361309052,-0.22563287615776062,0.03683612868189812,-0.12486984580755234,-0.15612918138504028,-0.20156008005142212,0.04455849155783653],[-0.17603036761283875,0.16437013447284698,-0.03653208166360855,0.3455599248409271,-0.14015494287014008,0.1986771672964096,0.29019448161125183,0.17322030663490295,0.08699635416269302,-0.02517423778772354,-0.16779953241348267,0.024630693718791008,0.20439118146896362,0.05732659995555878,0.11663001030683517,-0.12480965256690979,0.17829154431819916,-0.19260959327220917,0.24870742857456207,0.1081419587135315,-0.06465394049882889,0.16795502603054047,-0.09661669284105301,0.1825864464044571,-0.13587401807308197,-0.001915326458401978,-0.16803550720214844,-0.11670441180467606,0.16750426590442657,-0.1395648568868637,0.16904602944850922,-0.025824377313256264,0.08784013241529465,0.19128447771072388,0.0699404627084732,0.3030247688293457,-0.03545472398400307,0.1622261255979538,-0.05223320052027702,-0.11603522300720215,0.23484691977500916,0.12940648198127747,0.11095333844423294,-0.012548539787530899,-0.1330394595861435,0.2522478997707367,0.14695511758327484,0.17628854513168335,0.1555018424987793,0.04376647621393204,0.16922743618488312,0.23499566316604614,0.027809059247374535,0.16805361211299896,-0.06732412427663803,0.17058952152729034,0.08254434913396835,0.0888819545507431,0.13727439939975739,-0.13533520698547363,0.012541575357317924,-0.09112679213285446,0.014124182984232903,-0.040191005915403366],[0.10098922252655029,0.12322085350751877,0.1344779133796692,0.014338186010718346,0.002068849513307214,0.1037338376045227,0.2890009880065918,0.2079625129699707,0.35648027062416077,-0.17757706344127655,0.09771427512168884,0.1389763206243515,0.031924664974212646,-0.12247971445322037,0.27609381079673767,-0.019077243283391,0.22563058137893677,-0.08575958758592606,-0.014769449830055237,0.04799994081258774,0.019780093804001808,0.014975940808653831,0.13488976657390594,-0.09688291698694229,0.0658862441778183,0.14927101135253906,0.16126686334609985,-0.1762361228466034,0.3908103406429291,-0.10483232885599136,0.09970157593488693,0.13336357474327087,0.15153631567955017,0.22648008167743683,0.15405391156673431,0.29589027166366577,0.36215531826019287,0.13833703100681305,-0.12142113596200943,-0.1811475157737732,0.20423875749111176,0.20446012914180756,0.022121762856841087,0.2404753863811493,0.0032128409948199987,0.17142042517662048,0.13827911019325256,0.26415109634399414,0.003757110796868801,0.2398991584777832,0.11826732009649277,0.2930869162082672,-0.12325997650623322,-0.02117541804909706,-0.09635593742132187,0.3679627478122711,0.3822651207447052,-0.13435809314250946,0.352774441242218,-0.13289660215377808,0.3833155035972595,0.050732944160699844,0.20510682463645935,0.08143346756696701],[0.013404451310634613,-0.08034169673919678,-0.15083858370780945,-0.02758588269352913,0.1615080088376999,-0.08975236862897873,-0.06159943714737892,-0.3625073730945587,-0.09158895909786224,0.04563828557729721,0.19282251596450806,-0.05699740722775459,-0.09579095244407654,0.010749689303338528,-0.3190009295940399,0.1592966616153717,-0.08263075351715088,0.08469624072313309,-0.14940617978572845,-0.037241484969854355,-0.014897202141582966,-0.19566495716571808,-0.03506455570459366,0.197622150182724,0.04815702512860298,-0.11564566940069199,-0.16686517000198364,-0.06433285772800446,-0.15805482864379883,-0.13254891335964203,0.1142224371433258,-0.20366525650024414,0.05558287724852562,-0.20198288559913635,-0.289249986410141,-0.15067878365516663,-0.29048487544059753,-0.24176634848117828,-0.12352845817804337,0.11746490001678467,0.011176307685673237,-0.13977904617786407,0.1700667142868042,-0.3067031800746918,0.14339570701122284,-0.25235143303871155,-0.026247922331094742,-0.15136900544166565,-0.0890607237815857,-0.11084963381290436,0.0106544503942132,-0.3765704035758972,-0.08843404054641724,-0.06803081929683685,0.08919229358434677,-0.061328329145908356,-0.24062040448188782,-0.1772070825099945,-0.08084779977798462,-0.06128475069999695,-0.18677039444446564,-0.13853825628757477,-0.045840516686439514,-0.08944341540336609],[-0.1696879118680954,-0.0036221996415406466,-0.058084215968847275,0.15480419993400574,0.10689081251621246,0.04721406474709511,-0.177021324634552,-0.20138537883758545,-0.016484348103404045,0.12665429711341858,0.15383465588092804,0.14751844108104706,-0.06449013948440552,0.15916277468204498,0.06463436037302017,0.13427132368087769,-0.21186882257461548,-0.14038458466529846,-0.01462779100984335,-0.14936992526054382,-0.18110664188861847,-0.21172383427619934,-0.16628186404705048,-0.14757733047008514,0.15405064821243286,0.14086879789829254,-0.16870851814746857,-0.05171965807676315,-0.2229708880186081,0.04033350199460983,0.06353722512722015,-0.18877483904361725,-0.032389312982559204,-0.18066617846488953,-0.17153863608837128,-0.19271816313266754,-0.1272238940000534,-0.19013457000255585,-0.19755437970161438,-0.11695241183042526,0.010058236308395863,-0.0782749131321907,-0.07184071838855743,-0.18878693878650665,-0.029037004336714745,-0.1199805960059166,-0.12407919764518738,0.16354379057884216,0.181849867105484,-0.08305274695158005,-0.08167248219251633,-0.2261255532503128,0.14674679934978485,-0.009494801983237267,-0.1978614628314972,-0.07914364337921143,-0.02019423432648182,0.05279374122619629,0.13100764155387878,-0.1424788236618042,-0.09555412828922272,-0.12162008136510849,0.13969074189662933,-0.07019537687301636],[0.03957730159163475,-0.12307602167129517,0.3290811777114868,0.3085092008113861,0.14313237369060516,0.11244076490402222,0.2552756667137146,0.292881041765213,0.1110985055565834,0.09910085797309875,0.025002406910061836,0.38645321130752563,0.4214712679386139,0.05270170792937279,0.207322359085083,-0.021015429869294167,0.13876445591449738,-0.08092720806598663,-0.00937320850789547,-0.06451962888240814,-0.04446827247738838,0.24682530760765076,0.0783141627907753,0.027964524924755096,-0.03306565806269646,0.35177361965179443,-0.013178943656384945,-0.010437526740133762,0.42316752672195435,-0.12916390597820282,0.1734195500612259,0.22000493109226227,0.04669453948736191,0.1843797266483307,0.13721969723701477,0.04524853080511093,0.06342976540327072,0.3986143171787262,0.10375452786684036,0.07177069783210754,0.20409110188484192,0.37177273631095886,0.10417307168245316,0.321942538022995,0.06860262900590897,0.05518384277820587,-0.004476071335375309,0.3945430815219879,0.1637583076953888,0.32154393196105957,-0.14536532759666443,0.3844786286354065,-0.1285787671804428,0.16081254184246063,-0.16739508509635925,0.3443819582462311,0.3007788062095642,-0.10291515290737152,0.15152263641357422,-0.08687654882669449,0.07511218637228012,0.17227163910865784,0.39173606038093567,-0.11460836976766586],[0.07750450819730759,0.02266055904328823,0.23107528686523438,0.2000630795955658,0.163880854845047,-0.1422204226255417,0.15454907715320587,0.2988664209842682,0.2995188236236572,0.04201842099428177,0.11952859908342361,0.09066057205200195,0.2332185059785843,-0.15930181741714478,0.15174542367458344,0.1765391230583191,0.17377495765686035,0.05226689577102661,0.10944226384162903,-0.08326753228902817,0.06296174228191376,0.13959862291812897,0.014067316427826881,0.09553462266921997,0.014258290641009808,0.11216267198324203,0.15689566731452942,-0.04140804335474968,0.15798527002334595,0.018880940973758698,-0.17996835708618164,0.012970052659511566,0.13305005431175232,0.06913241744041443,0.1507577896118164,0.023426778614521027,0.16938810050487518,0.2978876531124115,-0.07952111214399338,-0.049059536308050156,-0.0570124126970768,0.25188589096069336,-0.017557628452777863,0.1278705596923828,0.19488228857517242,0.2612724304199219,-0.06076177954673767,-0.028208615258336067,0.15887212753295898,0.18899300694465637,0.02768927812576294,-0.00005837371645611711,-0.05317206308245659,0.030748268589377403,-0.060023948550224304,-0.08222853392362595,0.03454602137207985,-0.11296845972537994,0.24382871389389038,0.023703541606664658,-0.07660061866044998,0.18408268690109253,0.0851946622133255,-0.08369404077529907],[-0.056246690452098846,-0.20697949826717377,-0.2265002280473709,-0.2326989769935608,0.10149135440587997,-0.19323208928108215,-0.31874826550483704,-0.3684045672416687,-0.4520788788795471,-0.04883819445967674,-0.031203072518110275,-0.24781152606010437,-0.2825801372528076,-0.02947727032005787,-0.3190343677997589,-0.01934451423585415,-0.19061748683452606,-0.01243569515645504,-0.1297517567873001,-0.16708560287952423,-0.125613734126091,-0.4626091420650482,-0.16025139391422272,-0.15350650250911713,0.0887148529291153,-0.18014730513095856,0.18725518882274628,-0.17818963527679443,-0.09851294010877609,-0.11909504979848862,-0.16206081211566925,-0.35006022453308105,0.08234785497188568,-0.17887648940086365,-0.44961029291152954,-0.16601042449474335,-0.42778676748275757,-0.46267950534820557,-0.15806274116039276,0.02397429384291172,-0.4429530203342438,-0.45905184745788574,-0.15150828659534454,-0.25413358211517334,-0.05684987083077431,-0.20628155767917633,0.17330047488212585,-0.14394451677799225,-0.19467070698738098,-0.10937440395355225,-0.04825427010655403,-0.40029430389404297,0.18179766833782196,-0.1395399421453476,-0.2006114423274994,-0.21977394819259644,-0.17442668974399567,0.14887578785419464,-0.2873933017253876,0.0022566167172044516,-0.20595936477184296,-0.10525374859571457,-0.2972427010536194,0.08160028606653214],[-0.10596209019422531,0.09893970191478729,0.018120523542165756,0.072808638215065,-0.0489945262670517,-0.09035094082355499,0.03601555526256561,0.29022926092147827,0.3017074763774872,-0.04061037302017212,0.03986227512359619,0.22917504608631134,-0.007486035116016865,-0.19152486324310303,-0.004456241149455309,0.05640280619263649,0.1265779435634613,-0.0979323461651802,0.17964321374893188,0.03377619758248329,-0.1997646540403366,0.0957886353135109,0.260575532913208,-0.03185268118977547,-0.01817929558455944,0.0962291732430458,-0.11546753346920013,-0.11416211724281311,0.06124168261885643,-0.13336089253425598,0.19321975111961365,0.04935207962989807,-0.013422122225165367,-0.027762779965996742,0.1259176880121231,0.03876539319753647,0.09359092265367508,0.04410570114850998,-0.06864511221647263,-0.17938902974128723,0.11707930266857147,0.35089632868766785,0.09228771179914474,0.008404666557908058,0.11212658882141113,0.301541805267334,0.08865769952535629,0.13713183999061584,0.074691042304039,0.24536460638046265,0.14969272911548615,0.25530245900154114,-0.10490866750478745,-0.0690564215183258,-0.18102358281612396,0.16854122281074524,0.0777493342757225,-0.04524863511323929,0.3300825357437134,0.0001304866891587153,0.03484208136796951,0.08335648477077484,0.15409646928310394,-0.1612950712442398],[-0.10721100121736526,-0.1583389937877655,0.07540904730558395,0.2652990520000458,0.17521166801452637,0.19068793952465057,0.12183982133865356,-0.10463538765907288,0.00845599826425314,-0.17296776175498962,0.17595946788787842,0.22106994688510895,0.03753773868083954,0.19168946146965027,0.06842540204524994,-0.06773727387189865,0.06754342466592789,0.14425237476825714,0.07497817277908325,0.09007730334997177,0.15631026029586792,0.047235168516635895,-0.06992411613464355,0.08458532392978668,-0.1825200319290161,0.03045637719333172,0.1670418679714203,-0.02292962558567524,-0.07640235871076584,-0.1372077614068985,-0.10924920439720154,0.06624773144721985,-0.1430470049381256,-0.07864564657211304,-0.053615592420101166,-0.10364328324794769,0.01260829996317625,-0.09130390733480453,0.07981220632791519,0.04084082692861557,0.18964505195617676,-0.03308020904660225,-0.0059647634625434875,0.07050047069787979,0.0559147410094738,0.11955025792121887,0.12314039468765259,0.17380285263061523,0.18254753947257996,0.24098573625087738,0.14798295497894287,0.03926587477326393,-0.13824664056301117,0.010663121938705444,-0.14598219096660614,-0.10076034814119339,-0.06907518953084946,0.16323664784431458,-0.1044381633400917,0.0853462889790535,-0.03911072015762329,-0.1863824725151062,0.1986512690782547,-0.020623015239834785],[-0.019320590421557426,0.043136224150657654,0.32107463479042053,0.05800623074173927,-0.08374273031949997,-0.1812330037355423,0.1736845076084137,0.42324206233024597,0.4266437292098999,0.009082320146262646,0.16480906307697296,0.2597830891609192,0.2690129280090332,-0.03720533102750778,0.11032244563102722,0.14453651010990143,0.17069056630134583,0.04456382989883423,-0.11416421830654144,-0.13914614915847778,0.07115478068590164,0.06903378665447235,0.13529598712921143,0.13704539835453033,0.24364420771598816,0.3715324401855469,0.0750061571598053,-0.17361809313297272,0.20436111092567444,0.00586538715288043,0.08129628002643585,0.14968757331371307,-0.17424917221069336,0.05077168717980385,0.20009471476078033,0.4254746735095978,0.10043183714151382,0.18746767938137054,-0.14488376677036285,0.09761743247509003,0.12135875225067139,0.2760727107524872,0.0360206663608551,0.39959606528282166,-0.17999154329299927,0.2840535044670105,-0.1552785336971283,0.2805902361869812,-0.09292959421873093,0.39494577050209045,-0.1577226221561432,0.32814377546310425,-0.15370789170265198,0.16242970526218414,0.1990148425102234,0.08625955879688263,0.2640933692455292,-0.0014041904360055923,0.20037320256233215,0.02529936656355858,0.4218212068080902,-0.12132386863231659,0.19641120731830597,-0.1429244726896286],[0.1600549966096878,0.07822847366333008,0.1255970597267151,0.0637277141213417,-0.01813015155494213,0.12030287086963654,-0.14979331195354462,0.19228911399841309,-0.010890120640397072,0.07539012283086777,0.0028486736118793488,0.052329517900943756,0.17470747232437134,0.02114788442850113,0.06965366750955582,0.1401240974664688,-0.12832720577716827,-0.14162111282348633,-0.13598871231079102,-0.1566004753112793,0.1748916059732437,-0.08278040587902069,-0.07787957042455673,-0.08019894361495972,0.03130332753062248,0.11721810698509216,-0.05926334485411644,-0.061466459184885025,0.07629580050706863,0.04177020490169525,-0.13422589004039764,0.029600543901324272,-0.17872203886508942,-0.0240800678730011,-0.07056167721748352,-0.06788574159145355,0.1809072047472,0.12553955614566803,0.11471418291330338,-0.07347507029771805,0.1684059500694275,0.1040121540427208,0.08324762433767319,0.16286461055278778,0.015110949985682964,0.017644058912992477,-0.04027180373668671,0.09558276832103729,-0.19543658196926117,-0.13391850888729095,0.14001983404159546,0.19928789138793945,-0.027040155604481697,-0.05612639710307121,0.18186233937740326,0.011726551689207554,0.037556152790784836,0.15417513251304626,0.02019837684929371,-0.1213119849562645,0.16171571612358093,0.04645929113030434,0.04557916149497032,0.1278550624847412],[0.06875104457139969,-0.10469397157430649,-0.08018724620342255,-0.29270434379577637,0.1466801017522812,-0.19682346284389496,-0.2868855595588684,-0.17134854197502136,-0.20268815755844116,-0.017178645357489586,0.13662484288215637,-0.3698316216468811,-0.25159868597984314,-0.024592265486717224,-0.001644529984332621,-0.12558907270431519,-0.07977472990751266,-0.0019149462459608912,-0.03497451916337013,-0.022159071639180183,-0.16897565126419067,-0.3092647194862366,0.08269226551055908,-0.15957151353359222,0.1433391571044922,-0.15202301740646362,-0.05616912618279457,-0.008297673426568508,-0.023864099755883217,-0.09566202014684677,0.06847085058689117,-0.27601271867752075,0.05320674553513527,-0.14734268188476562,-0.03538959100842476,-0.2671055793762207,-0.13649842143058777,-0.07758383452892303,0.0810137391090393,-0.16505663096904755,-0.22586919367313385,-0.12000887840986252,-0.00029910323792137206,-0.061439961194992065,0.18758918344974518,-0.3593600392341614,0.10547424107789993,-0.17784923315048218,0.06218636408448219,-0.18369881808757782,0.07304579764604568,-0.013454471714794636,0.1775132417678833,0.1897519826889038,-0.06639274954795837,-0.24025538563728333,-0.07798454165458679,0.12387146055698395,-0.35062533617019653,-0.15074078738689423,-0.34719184041023254,-0.02490374632179737,-0.3483784794807434,0.08323337137699127],[-0.1713283210992813,-0.1345033049583435,-0.012472076341509819,0.05952151492238045,0.19954952597618103,-0.07885293662548065,0.032676633447408676,0.04669599235057831,0.004677277989685535,-0.058596692979335785,-0.0706247016787529,-0.19656142592430115,-0.18226493895053864,0.14163663983345032,0.047385916113853455,-0.15128789842128754,-0.1333315372467041,0.03099561296403408,0.10758368670940399,0.08095549792051315,-0.052303068339824677,-0.026887260377407074,-0.11559797078371048,0.07283210009336472,-0.027537599205970764,-0.1142711415886879,0.08547530323266983,-0.10110783576965332,0.09676722437143326,-0.09659569710493088,-0.06030059605836868,-0.021900374442338943,0.009823380969464779,0.17017824947834015,0.17283715307712555,-0.1510182023048401,-0.1977759152650833,-0.06153690442442894,-0.18467700481414795,0.019283337518572807,0.09755048155784607,-0.17327040433883667,0.1756737232208252,0.08140639960765839,-0.09706024825572968,0.08443185687065125,0.15264229476451874,0.02682570368051529,-0.024610185995697975,0.13461977243423462,0.09225884079933167,0.03229392692446709,-0.05307730287313461,-0.010441990569233894,-0.178613543510437,-0.038481488823890686,-0.027866510674357414,-0.194547638297081,0.16594521701335907,-0.11001384258270264,-0.0370384082198143,-0.02763589844107628,-0.002744613913819194,-0.13287955522537231],[0.07538147270679474,-0.08597809076309204,-0.08462308347225189,-0.3826686143875122,-0.05589305981993675,0.1980239301919937,-0.25303468108177185,-0.01092376559972763,-0.37765902280807495,-0.03492652252316475,0.13648715615272522,-0.24755415320396423,-0.08759824931621552,0.11428553611040115,-0.31854596734046936,-0.0008973614894784987,-0.3336295187473297,0.01764436438679695,0.0807308480143547,-0.1635868400335312,0.011530782096087933,-0.11479143053293228,-0.12374349683523178,0.15694791078567505,0.11627227067947388,-0.2886573076248169,0.13131295144557953,0.05545448511838913,-0.30710577964782715,-0.03462045639753342,0.17179462313652039,-0.23390503227710724,-0.03346797078847885,-0.2475414276123047,-0.3573864698410034,-0.04641979560256004,-0.009506573900580406,-0.29783904552459717,0.10975882411003113,-0.17636866867542267,-0.14189676940441132,-0.2209232747554779,-0.06979013234376907,-0.21109618246555328,0.16221202909946442,-0.09916538745164871,0.02358955889940262,-0.2973839342594147,0.011899559758603573,-0.3033416271209717,-0.007038510404527187,0.002093296032398939,0.0121225044131279,-0.11016959697008133,-0.1229809895157814,-0.27464762330055237,-0.17300908267498016,0.06624247878789902,-0.27861133217811584,0.026907827705144882,-0.24385905265808105,0.1013876348733902,-0.10045052319765091,0.07978036254644394],[-0.012102820910513401,-0.0038799564354121685,0.2631811797618866,0.24161919951438904,-0.1442629098892212,-0.14093710482120514,0.08311570435762405,0.16595914959907532,0.40758800506591797,-0.05160745605826378,0.09466328471899033,0.059370096772909164,0.0738690122961998,0.10998920351266861,0.17007966339588165,0.07548411935567856,0.2357792854309082,0.029898734763264656,0.17510809004306793,0.19345010817050934,-0.05958839878439903,0.34625935554504395,0.27941158413887024,0.1194034144282341,-0.13069167733192444,0.2876552641391754,-0.0392608568072319,-0.18858197331428528,0.3587770164012909,-0.05458533763885498,-0.13921299576759338,0.22987103462219238,-0.10469231009483337,0.1775302141904831,0.06378031522035599,0.18121984601020813,0.16914798319339752,0.04676828533411026,0.1735841929912567,0.1325100064277649,0.1024932712316513,0.14351139962673187,-0.048723600804805756,0.24097876250743866,-0.16283220052719116,0.181019127368927,-0.13490641117095947,0.35468193888664246,-0.02566509135067463,0.025187773630023003,-0.017868515104055405,0.2744159400463104,0.019491860643029213,-0.0551193542778492,-0.020652903243899345,0.3958989977836609,0.13851743936538696,-0.0031947160605341196,0.35371625423431396,-0.12270014733076096,0.14380571246147156,0.12372545897960663,0.031175555661320686,0.00990650337189436],[0.17028142511844635,0.0024787948932498693,0.24461282789707184,0.4305657744407654,-0.09599290788173676,0.14927707612514496,0.46465274691581726,0.3520669639110565,0.5042796730995178,-0.17633368074893951,-0.023914333432912827,0.5034478902816772,0.1668640375137329,-0.11093728989362717,0.1320454329252243,-0.02381749637424946,0.3160189390182495,0.07472075521945953,0.18720002472400665,-0.18128618597984314,-0.06548064202070236,0.20147861540317535,0.12610924243927002,0.08621697872877121,0.09995336085557938,0.227262943983078,-0.07808005809783936,0.018930697813630104,0.4622155725955963,-0.0948449969291687,-0.14139719307422638,0.4870278239250183,-0.04570569097995758,0.23960556089878082,0.11103415489196777,0.3439924418926239,0.48400968313217163,0.42668235301971436,0.09825962036848068,-0.13414175808429718,0.08416152745485306,0.3562401831150055,0.1542535424232483,0.2944667935371399,0.11440858989953995,0.4554324150085449,-0.08148517459630966,0.2824477553367615,-0.1511082798242569,0.2861700654029846,0.010223304852843285,0.35422641038894653,-0.18288473784923553,0.06168137490749359,0.2103603035211563,0.3342934846878052,0.28148630261421204,-0.16061832010746002,0.20081788301467896,-0.126347154378891,0.1374596506357193,-0.18240831792354584,0.19572752714157104,0.08322228491306305],[0.00165500957518816,-0.07537507265806198,0.14216572046279907,0.14377467334270477,0.058970820158720016,-0.0004882993525825441,0.31364506483078003,0.17776700854301453,0.24787504971027374,0.1296265870332718,0.008045295253396034,0.24600829184055328,0.41397032141685486,0.000687791034579277,0.3967803418636322,-0.04499999061226845,0.2036852240562439,0.0037951262202113867,0.20904533565044403,-0.11592729389667511,-0.09899444878101349,0.3637763261795044,0.14240194857120514,-0.11454617232084274,0.07870060950517654,0.27582427859306335,-0.1871347725391388,0.1461714208126068,0.044438619166612625,-0.0010524996323511004,-0.0920000821352005,0.4265154302120209,-0.026129713281989098,0.10876227170228958,0.11229030787944794,0.06629128754138947,0.43485698103904724,0.21359801292419434,0.16667252779006958,0.15868604183197021,0.0686611756682396,0.31058865785598755,-0.02874606102705002,0.3366052508354187,-0.17970624566078186,0.37557756900787354,0.03549651429057121,0.35542401671409607,-0.14703145623207092,0.20799875259399414,-0.14965425431728363,0.4046797752380371,0.14848509430885315,-0.17142148315906525,0.040050532668828964,0.2326415777206421,0.11867374926805496,0.18284839391708374,0.4297693073749542,-0.13868948817253113,0.15967240929603577,-0.15102650225162506,0.43248119950294495,0.12789107859134674],[-0.11943221092224121,0.2317415028810501,0.529243528842926,0.39365530014038086,0.11193664371967316,0.1121702492237091,0.3740832209587097,0.435738742351532,0.40363097190856934,-0.12475642561912537,0.09401246160268784,0.23699815571308136,0.3357594907283783,0.1802012026309967,0.3606545925140381,0.008767866529524326,0.18788796663284302,-0.08971276134252548,-0.011674853041768074,0.060207121074199677,0.019566893577575684,0.5015435218811035,0.31159183382987976,0.19362226128578186,0.12747637927532196,0.3323460519313812,0.09424212574958801,0.16914117336273193,0.2402687817811966,0.0021900073625147343,-0.1463247835636139,0.29523423314094543,-0.014904317446053028,0.32590582966804504,0.32166624069213867,0.3688482642173767,0.2676192820072174,0.3930572271347046,0.08792164921760559,0.00023059017257764935,0.3032435178756714,0.22467847168445587,0.006001926027238369,0.5143534541130066,0.16877737641334534,0.3327091634273529,-0.15927699208259583,0.33939436078071594,-0.08960620313882828,0.19715699553489685,-0.03855118900537491,0.45927903056144714,-0.1189718022942543,0.029983332380652428,-0.028466762974858284,0.35851800441741943,0.21345645189285278,0.10583193600177765,0.188132181763649,0.16783611476421356,0.3321801722049713,0.05046782270073891,0.4457628130912781,0.04105911776423454],[0.12257326394319534,0.1962539702653885,0.3689572811126709,0.22587557137012482,0.052077192813158035,-0.16753682494163513,0.03429098799824715,0.19158999621868134,0.11768312752246857,-0.08871247619390488,-0.18143020570278168,0.15405260026454926,0.3267948031425476,-0.04091378301382065,0.05941382795572281,0.08487913012504578,0.1955009251832962,-0.19668808579444885,0.15468907356262207,0.1718006283044815,-0.0043362886644899845,0.3694429397583008,0.1067260354757309,0.07447276264429092,0.1665956974029541,0.06419060379266739,0.13108259439468384,-0.1547309309244156,0.08772000670433044,-0.09474971890449524,0.00540233263745904,0.1146719828248024,0.17728643119335175,0.2531799376010895,0.0026458182837814093,0.33890223503112793,0.3032629191875458,0.17636699974536896,-0.02489331178367138,0.05796126276254654,0.11546963453292847,0.10809668898582458,0.02779865823686123,0.058131150901317596,-0.09610920399427414,0.3927035927772522,0.1595584750175476,0.21130841970443726,-0.07927493005990982,0.342742919921875,0.09051293134689331,0.3611328601837158,-0.10840674489736557,-0.14541737735271454,-0.004555514547973871,0.21392688155174255,0.3910057842731476,-0.0528440922498703,0.2164323925971985,-0.13786330819129944,0.39322763681411743,-0.05320747569203377,0.07053393870592117,0.0938907340168953],[0.18248875439167023,0.19983530044555664,-0.13515907526016235,0.20163920521736145,0.19943904876708984,-0.053875621408224106,-0.020541096106171608,-0.16058196127414703,-0.16885170340538025,-0.15272930264472961,0.11555831134319305,-0.17146950960159302,0.17481563985347748,0.09447616338729858,0.037602804601192474,-0.1419149786233902,0.024823389947414398,0.044402170926332474,-0.06736625730991364,0.17199912667274475,0.13162772357463837,0.16695602238178253,0.06728511303663254,-0.05414337292313576,0.16438151895999908,0.1300514191389084,-0.07570378482341766,-0.15587541460990906,0.07256626337766647,0.04096030443906784,-0.14299100637435913,-0.11097577214241028,0.19026854634284973,0.014440399594604969,0.10218280553817749,0.06274763494729996,-0.07018668204545975,0.10377293825149536,-0.08504939824342728,0.1951158046722412,-0.15902645885944366,0.043576207011938095,0.04608721286058426,0.14081886410713196,-0.06394344568252563,0.22432498633861542,0.17953693866729736,0.12421263009309769,-0.06957544386386871,0.19190004467964172,0.1912916898727417,0.019656304270029068,-0.049134429544210434,0.10447772592306137,-0.17219620943069458,-0.04059097170829773,0.20479266345500946,0.11838775873184204,0.19600622355937958,-0.14588548243045807,0.06351649016141891,-0.09758922457695007,-0.12283368408679962,-0.17232678830623627],[0.04338324815034866,0.1866680532693863,0.25172188878059387,0.1936091184616089,-0.014687597751617432,-0.0288883987814188,0.21709172427654266,0.18257293105125427,0.3393372595310211,0.19799479842185974,-0.09985078871250153,0.1330794394016266,0.2868955731391907,0.15509667992591858,0.3024485409259796,-0.1805666834115982,0.34656384587287903,-0.07831112295389175,0.20909813046455383,0.0014040516689419746,0.17841839790344238,0.2539198696613312,0.20557402074337006,0.11540695279836655,0.23999157547950745,0.19560307264328003,0.11928267776966095,0.10116095840930939,0.07969777286052704,-0.1468019336462021,-0.05138036236166954,0.19173336029052734,0.03342737630009651,0.2047232687473297,0.06823815405368805,0.16331933438777924,0.26961058378219604,0.2539862394332886,0.04302970692515373,0.189933642745018,0.2872929275035858,0.4277803301811218,0.047502707690000534,0.13657328486442566,-0.013110199943184853,0.13010893762111664,0.0678514614701271,0.2637122869491577,-0.055258557200431824,0.1304665207862854,0.13714256882667542,0.3797836899757385,0.14470823109149933,0.012611126527190208,0.20778414607048035,0.4014601707458496,0.4005635678768158,-0.10826999694108963,0.13431383669376373,-0.13890202343463898,0.29098817706108093,0.14095424115657806,0.14081312716007233,0.06012840196490288],[0.06081157550215721,0.07981105893850327,-0.07402529567480087,0.052606649696826935,-0.1524435579776764,-0.053575415164232254,-0.0173015259206295,-0.0858602300286293,0.2781505286693573,-0.19847673177719116,0.01735706627368927,0.24147996306419373,0.1705666184425354,-0.07380140572786331,0.06785836815834045,-0.04905294254422188,-0.0017221438465639949,0.15197882056236267,-0.01567547582089901,-0.1505272090435028,0.17368800938129425,-0.001680724322795868,0.127630352973938,-0.09036608785390854,0.06769906729459763,-0.00802785623818636,0.0027902049478143454,0.1901869922876358,0.053354162722826004,-0.026677705347537994,-0.16398486495018005,-0.06809187680482864,-0.010305465199053288,0.2722591161727905,0.2635689377784729,0.04046960547566414,-0.006109765265136957,0.03959234803915024,0.16084417700767517,-0.0013019150355830789,0.2038879543542862,-0.0054963561706244946,0.18410402536392212,0.02157343365252018,-0.04950448125600815,0.15899118781089783,-0.09967465698719025,0.22423191368579865,0.177426278591156,0.18623007833957672,-0.03207732364535332,0.08547502011060715,-0.19755491614341736,0.03998199477791786,-0.11809103935956955,0.11651613563299179,0.07708419859409332,0.03695102035999298,0.29442721605300903,-0.17963866889476776,0.24684493243694305,-0.16113600134849548,0.294321745634079,-0.14478863775730133],[-0.16051675379276276,-0.16897648572921753,-0.29671189188957214,-0.13033677637577057,0.17638428509235382,0.12326759845018387,-0.13585348427295685,-0.44518718123435974,-0.13831473886966705,0.04308905079960823,0.1911284625530243,-0.16462162137031555,-0.3450857400894165,-0.04234995320439339,-0.4326761066913605,-0.0009744627168402076,-0.38580697774887085,-0.11254999041557312,0.07132899761199951,-0.049788493663072586,0.18819141387939453,-0.3605636656284332,-0.03842053934931755,0.16610433161258698,-0.1380569487810135,-0.420790433883667,-0.1763555258512497,0.14986467361450195,-0.2407754510641098,-0.1550060212612152,0.1706550568342209,-0.2371319830417633,-0.16898801922798157,-0.4040570557117462,-0.36565065383911133,-0.18854878842830658,-0.28229573369026184,-0.3233129382133484,0.0906144306063652,-0.14730249345302582,-0.08062770217657089,-0.14194579422473907,0.015153514221310616,-0.46764376759529114,0.19311974942684174,-0.43801718950271606,-0.1732330471277237,-0.30082017183303833,0.08907653391361237,-0.11386540532112122,-0.06858783215284348,-0.45495831966400146,-0.1662687361240387,0.1726585328578949,0.012215772643685341,-0.34632864594459534,-0.09497358649969101,-0.01569213531911373,-0.2942468523979187,0.009479008615016937,-0.3585115373134613,-0.05444643646478653,-0.19374102354049683,0.13368003070354462]],"biases":[0.32297563552856445,0.18166819214820862,0.07507874071598053,-0.10556971281766891,-0.21726126968860626,-0.03419841080904007,-0.3733411133289337,0.1047859862446785,-0.21424070000648499,0.05837637186050415,0.10471347719430923,-0.039510928094387054,-0.2078281193971634,0.1260577291250229,0.05218883976340294,-0.09192591160535812,0.007790279574692249,0.2605319619178772,0.2587662935256958,0.1794719696044922,-0.07044897228479385,0.14586016535758972,-0.34233298897743225,0.36842718720436096,0.09891632199287415,0.41434597969055176,0.49930548667907715,0.11244405806064606,0.11851267516613007,0.38568103313446045,-0.08902417868375778,-0.14590895175933838]},{"weights":[[5.0874247550964355,3.375269889831543,3.3193559646606445,2.061617136001587,1.543004035949707,3.8927431106567383,1.9592702388763428,3.4061150550842285,1.4467562437057495,2.2498764991760254,5.220660209655762,5.398215293884277,1.3137598037719727,4.414095401763916,4.8060760498046875,3.9752416610717773,1.9660518169403076,1.8894333839416504,3.8439176082611084,4.940515518188477,3.75101900100708,4.063755512237549,2.3365931510925293,3.2307212352752686,3.896345853805542,5.165374755859375,4.065866947174072,3.337739944458008,4.408127784729004,2.5646605491638184,3.224735975265503,4.1060791015625]],"biases":[6.177711486816406]}],"inputLookup":null,"inputLookupLength":0,"outputLookup":null,"outputLookupLength":0,"options":{"inputSize":0,"outputSize":0,"binaryThresh":0.5,"hiddenLayers":[64,32],"activation":"sigmoid"},"trainOpts":{"activation":"sigmoid","iterations":200,"errorThresh":0.01,"log":true,"logPeriod":10,"leakyReluAlpha":0.01,"learningRate":0.3,"momentum":0.1,"callbackPeriod":10,"timeout":"Infinity","beta1":0.9,"beta2":0.999,"epsilon":1e-8}}